digraph Tree {
node [shape=box, style="filled, rounded", color="black", fontname="helvetica"] ;
edge [fontname="helvetica"] ;
0 [label="petal width (cm) <= 1.65\ngini = 0.65\nsamples = 90\nvalue = [39, 48, 63]\nclass = virginica", fillcolor="#ece2fb"] ;
1 [label="sepal length (cm) <= 5.45\ngini = 0.52\nsamples = 57\nvalue = [39, 48, 2]\nclass = versicolor", fillcolor="#dbfae8"] ;
0 -> 1 [labeldistance=2.5, labelangle=45, headlabel="True"] ;
2 [label="petal width (cm) <= 0.7\ngini = 0.15\nsamples = 26\nvalue = [34, 3, 0]\nclass = setosa", fillcolor="#e78c4a"] ;
1 -> 2 ;
3 [label="gini = 0.0\nsamples = 24\nvalue = [34, 0, 0]\nclass = setosa", fillcolor="#e58139"] ;
2 -> 3 ;
4 [label="gini = 0.0\nsamples = 2\nvalue = [0, 3, 0]\nclass = versicolor", fillcolor="#39e581"] ;
2 -> 4 ;
5 [label="petal width (cm) <= 0.65\ngini = 0.24\nsamples = 31\nvalue = [5, 45, 2]\nclass = versicolor", fillcolor="#56e994"] ;
1 -> 5 ;
6 [label="gini = 0.0\nsamples = 3\nvalue = [5, 0, 0]\nclass = setosa", fillcolor="#e58139"] ;
5 -> 6 ;
7 [label="sepal length (cm) <= 7.1\ngini = 0.08\nsamples = 28\nvalue = [0, 45, 2]\nclass = versicolor", fillcolor="#42e687"] ;
5 -> 7 ;
8 [label="petal length (cm) <= 5.25\ngini = 0.04\nsamples = 27\nvalue = [0, 45, 1]\nclass = versicolor", fillcolor="#3de684"] ;
7 -> 8 ;
9 [label="gini = 0.0\nsamples = 26\nvalue = [0, 45, 0]\nclass = versicolor", fillcolor="#39e581"] ;
8 -> 9 ;
10 [label="gini = 0.0\nsamples = 1\nvalue = [0, 0, 1]\nclass = virginica", fillcolor="#8139e5"] ;
8 -> 10 ;
11 [label="gini = 0.0\nsamples = 1\nvalue = [0, 0, 1]\nclass = virginica", fillcolor="#8139e5"] ;
7 -> 11 ;
12 [label="gini = 0.0\nsamples = 33\nvalue = [0, 0, 61]\nclass = virginica", fillcolor="#8139e5"] ;
0 -> 12 [labeldistance=2.5, labelangle=-45, headlabel="False"] ;
}